-0.0111561 0.00640087 -0.118969 0.0267834 -0.0153981 0.00822475 -0.0537537 0.016655 0.0639594 -0.00136877 0.0714033 -0.0361848 -0.0675974 0.0392854 -0.041087 0.0908655 -0.0538248 -0.161952 -0.0575514 -0.0357435 0.0616942 -0.041317 -0.0321691 0.0192169 -0.00958887 0.129796 -0.0251949 -0.0199691 -0.145847 -0.0682165 -0.00585269 0.0889318 0.0826382 0.0558258 -0.0172119 0.0927183 0.0103363 0.0610468 0.0254615 0.0254268 0.0383517 -0.0100165 -0.107381 0.10902 -0.0403733 0.0273591 -0.0384071 0.0397736 -0.00848801 0.00732938 0.0369959 0.0940724 0.0711596 0.0653833 -0.130136 0.0712404 -0.0929279 0.00651747 -0.0717273 -0.109171 0.0682566 -0.110748 -0.0944919 -0.101191 0.0906471 -0.0474986 0.0451705 -0.00905723 0.0595075 0.0184073 -0.0668478 -0.00678663 -0.132259 0.0223197 0.0131937 0.026436 0.0151924 0.18026 0.0150192 -0.202297 0.114383 -0.132945 0.0639576 0.0173907 -0.00208398 0.0232947 -0.0695794 0.0866574 -0.0270165 0.0558737 -0.0243949 0.00587227 0.022236 -0.0376051 -0.0416731 0.0531333 -0.0443262 0.0107537 0.0828143 -0.15532 -0.021715 -0.0257524 -0.040041 0.0828158 -0.000783819 0.0807173 -0.00770997 -0.0150159 -0.102763 0.0155968 0.0470687 -0.0217731 0.0201053 -0.0189828 -0.112909 -0.00569571 -0.0980839 -0.00537624 0.0221579 0.00606485 0.0944351 -0.0262595 0.00276288 -0.0423148 -0.107116 -0.0582768 -0.0259875 -0.0387314 -0.0101564 -0.150381 0.0611263 -0.0633275 0.0270592 0.0714323 -0.0988287 -0.0610267 -0.0347888 0.0643181 0.0933841 -0.0699541 -0.0266989 -0.118844 0.0534086 -0.00354355 0.0155562 -0.0289191 -0.0196462 0.0593565 -0.0161854 0.0404967 0.006558 -0.0723694 -0.0127249 -0.00447639 0.092651 -0.00991385 -8.88217e-05 -0.025023 0.0594478 -0.0113651 -0.0385585 -0.0290439 0.0867214 -0.00999759 -0.046038 0.0135097 0.111432 0.0699301 0.080771 -0.055096 0.0614716 0.070942 -0.00714104 -0.00757574 -0.00592225 -0.037549 0.026157 -0.033494 0.0573736 -0.0333882 0.111969 -0.0604003 0.0133775 -0.0231166 0.0532966 -0.0512425 -0.0175279 -0.0262266 -0.0592765 -0.082343 0.0309756 -0.0871507 -0.0801098 -0.0267981 -0.0216637 -0.0767817 -0.0898693 0.0576619 -0.0372667 0.0252393 -0.0203791 0.00115098 0.0687492 -0.0476667 -0.045866 -0.0266056 0.0335304 -0.029572 -0.00197925 -0.00907059 -0.0530186 -0.0166566 -0.0570125 0.0816392 -0.048717 -0.000517523 -0.0459579 0.107723 -0.0944661 -0.0390125 -0.00855031 0.0100567 -0.0385221 0.145404 -0.143564 0.175206 -0.0755749 -0.050189 0.00193963 0.158478 -0.0537461 0.0457303 -0.0738644 -0.0756058 0.036799 0.000970617 0.059289 -0.0791476 0.0367003 -0.0596539 -0.00964835 0.04083 -0.0612286 0.0216926 -0.0718939 -0.163646 -0.104328 0.000361666 0.0908691 0.0488827 -0.0791797 -0.0275774 -0.0292544 0.0418777 0.0462842 0.0118423 -0.0855567 0.0019254 0.0654455 -0.0312371 0.0534232 -0.0382361 -0.0831618 -0.00379189 -0.0201996 0.0197459 -0.0803138 0.028773 0.0569773 -0.0187845 0.0253517 0.00170138 0.0147343 -0.0647701 0.126539 0.102675 -0.0246815 -0.0473953 0.0485951 -0.0567561 0.0268293 -0.0300993 -0.0241731 0.0431623 0.0512624 0.0711635 -0.0453125 0.131727 0.207323 -0.016992 -0.0519676 -0.0772135 -0.0346153 -0.0420243 0.0389648 0.094848 0.0403324 0.0212229 -0.100928 -0.0102138 0.0120489 -0.0403384 -0.00251828 0.00731026 0.00270323 0.0566118 0.0373737 -0.0447561 0.0458369 -0.0167195 0.0541022 -0.0299421 -0.0819159 0.0714203 0.00487469 -0.0377804 0.0960419 -0.00500277 -0.0306388 -0.173742 -0.0342342 0.0826235 0.0103574 -0.0413363 0.1372 0.0281807 -0.0768648 -0.0661557 0.00595801 0.109399 -0.0754623 -0.0504126 0.0679092 0.0494485 0.0125374 -0.0357996 -0.0261325 0.114406 0.0101033 -0.108568 -0.00509874 -0.0706617 -0.0613137 0.0555296 -0.159837 -0.0493754 -0.0374835 0.00706968 -0.00334092 0.0554976 -0.0437912 0.0597827 -0.0960117 -0.0195355 0.00167742 -0.10019 0.0524463 -0.0817625 -0.00250409 -0.00997703 -0.00527347 0.0267037 -0.0449944 -0.0647024 -0.0401717 0.0443274 -0.0256011 -0.162137 -0.094162 0.0110371 0.0598875 -0.0620375 0.0147145 0.0978362 -0.0389933 0.0644184 0.0566523 0.0121778 0.0630416 0.108864 -0.0223417 -0.0480501 0.0243443 0.126699 0.00927613 -0.0253729 -0.0887198 -0.0216386 -0.0697671 -0.0830791 0.0571914 -0.0259457 0.027518 0.0392541 0.0357263 -0.0465413 -0.036216 -0.0724852 0.0220973 0.0306258 -0.0349842 -0.126456 0.0738799 0.0101767 -0.0240863 -0.0187684 -0.0177666 -0.164526 0.0772 -0.0456336 0.0154648 0.0148823 -0.0110314 -0.0325423 -0.0257162 0.00376923 0.0880975 0.0421611 0.00662621 0.0219488 -0.0142212 0.0198727 -0.0472841 -0.0241868 0.0282429 -0.0236599 0.0820797 0.0134235 0.0412325 -0.00164623 0.0256422 -0.0596655 0.0134879 0.00237277 -0.00364852 0.0913971 -0.00788515 0.0617361 0.0147425 0.0438246 0.0101782 -0.0585224 -0.0703518 0.0754548 -0.160818 -0.0697438 0.0118604 0.0733829 -0.0633954 0.022304 -0.00557316 -0.0298129 -0.0547879 0.00183781 0.0509734 0.0424522 -0.0512015 -0.0398228 -0.140348 -0.117804 0.0309384 -0.0633016 -0.0337794 -0.0614787 -0.0280405 -0.0385277 -0.0541562 -0.0318216 -0.0297015 -0.0073932 0.0888214 -0.020174 -0.031609 -0.0184976 -0.0491765 0.0379722 0.0802562 0.021529 -0.00739419 0.161051 0.0156693 -0.0829239 -0.0463575 0.0511693 0.130206 0.072539 -0.00857476 -0.0317458 0.10208 -0.108134 -0.0629649 0.0159179 -0.18287 -0.0585479 0.000688109 0.00687671 -0.048672 0.107502 0.0443959 -0.068973 0.00367821 -0.00274733 0.0741874 -0.0526227 0.0297032 0.0455428 -0.0214334 0.0649973 -0.0997628 -0.0774834 -0.0466586 0.0952339 
-0.043114 -0.00038499 -0.0818632 -0.0399065 -0.0798867 -0.0324796 -0.0170334 -0.0346263 -0.0191968 -0.0691809 0.0408589 -0.0163782 0.0453246 0.0407615 0.0664141 0.0399169 -0.0527705 -0.0193358 0.0494982 -0.0484364 0.0470621 -0.0260892 -0.0418342 1.01088e-05 -0.0487385 -0.0270141 -0.0451802 0.063225 -0.0286933 -0.0201245 0.10235 -0.015513 0.0400143 -0.0243671 -0.0509423 -0.0233143 0.0507259 -0.0364719 -0.0803319 -0.027042 0.0346326 -0.158303 -0.0191418 -0.0312999 0.00738244 -0.0295322 -0.128837 -0.0601637 -0.0629235 -0.0849813 0.0494519 -0.127832 -0.0562502 0.0546745 -0.0428046 -0.0850805 0.0746639 0.0451935 -6.92412e-05 0.0301248 0.0873088 0.0289834 -0.0443728 -0.00198935 -0.127867 -0.0322509 0.0278147 -0.00746449 -0.0114437 -0.0816986 0.000457219 0.0129378 0.035325 0.00392297 -0.0891432 0.0677024 0.0423122 -0.0903374 0.107746 -0.0716781 0.054301 -0.0489581 0.0692026 0.0474881 -0.0199748 0.000649546 0.0775 -0.112827 0.0830262 -0.0137872 0.0455155 -0.0273525 -0.0627891 -0.0708737 -0.0548327 0.0269318 0.0203371 0.071346 -0.0128874 -0.163407 -0.00656852 -0.0183035 -0.116046 -0.0107819 0.0337772 -0.0680141 0.106398 -0.0453786 0.00459308 0.0276042 0.0205048 -0.0398132 -0.0289929 0.0618557 -0.0524228 0.00510813 -0.0494294 0.00626912 -0.0549317 0.0298117 -0.0595069 -0.0228009 -0.0110506 0.0138615 -0.119255 0.032306 0.0555637 -0.0341118 -0.0908462 -0.0399291 -0.0386783 0.0172803 -0.0716173 -0.0761663 0.000491194 0.0314507 -0.0711144 -0.0583508 -0.0497109 -0.0276875 -0.0464733 -0.00357926 0.0255889 -0.140667 -0.0719249 0.00657793 0.0343554 0.0677549 0.0612841 0.0354182 0.00657936 0.095309 0.0830211 -0.0159511 -0.00669311 0.0148055 -0.0249251 -0.0544818 0.0812937 -0.0196095 -0.0413135 -0.119535 0.00604602 -0.154705 -0.0709706 0.00310616 -0.0342312 -0.0135669 -0.0586319 -0.0311656 0.115945 -0.179316 0.0101525 0.0619038 -0.00719495 0.0416975 -0.00183525 -0.00227032 0.0419441 0.0309437 0.0855613 0.0239074 -0.00487525 0.0363226 0.00191629 -0.0651563 0.0334429 0.0773666 -0.0847026 -0.0750943 0.0498522 0.106328 0.0622735 0.0232918 -0.0114494 0.0395718 0.118451 -0.112706 0.108854 0.0756262 0.078572 -0.042176 -0.0551047 -0.0115098 -0.0925751 -0.00496784 0.0109918 0.110077 -0.0328939 -0.139739 -0.0332041 -0.0730106 0.0628749 -0.0678771 -0.000437444 -0.0437656 -0.0642366 -0.0260764 0.119217 -0.0155798 -0.0239643 -0.103242 -0.0251721 -0.0687928 -0.0138193 -0.0749124 -0.0699032 -0.0976792 -0.0646824 -0.0856872 -0.00712746 -0.0593443 0.0167616 0.00554055 -0.00453301 0.0209288 0.00461569 -0.0224843 0.0443674 -0.0200763 0.0394742 -0.134552 -0.0440961 -0.00768511 -0.0542059 0.0627957 0.00504176 0.0395759 0.0427605 -0.0366972 0.057705 0.066475 -0.0153436 -0.0277681 0.00111934 0.0311878 0.00564056 0.004387 0.0106558 -0.0241263 0.102072 -0.0765 0.00281551 -0.0129773 7.1766e-05 0.0179685 0.109954 -0.117924 -0.0277422 0.0240431 -0.134137 0.00403135 -0.0412986 0.00792744 -0.0748612 -0.0827906 -0.120178 -0.0669088 -0.119907 -0.0182789 0.0795679 -0.0281159 -0.0228742 -0.0270537 0.131209 0.102851 0.00274929 -0.0491328 0.0125566 -0.0715799 -0.0230848 0.0353789 -0.0750241 0.104904 0.0178521 0.0654883 -0.0442491 0.10038 0.036524 -0.0478425 -0.0278976 -0.00470939 -0.030924 -0.0712515 -0.0136075 -0.0243395 -0.000595546 -0.132807 -0.114242 -0.108085 -0.105719 0.00537146 -0.101314 -0.065752 0.0482424 -0.106192 -0.104427 -0.0356729 0.014267 0.0304155 0.0987313 0.0348972 0.0153234 -0.0423147 0.0434094 -0.0156311 0.00251273 0.0406523 0.0932873 -0.0490026 -0.0022278 -0.108882 0.0225073 -0.0199288 -0.0402663 -0.015251 -0.0232266 0.00270915 -0.0831542 -0.00933986 0.00823414 0.00486681 0.0524236 0.0189554 0.0194076 -0.0293737 0.0469573 0.0212897 0.0326406 0.045854 0.0366404 0.0632334 -0.0975222 0.00763704 0.050887 0.0717356 0.0196608 0.0592832 0.0428062 0.0306705 -0.0380705 -0.0328874 0.0229001 0.0451898 0.117287 -0.0454988 0.090096 0.0172585 -0.176487 0.0629924 0.0451349 0.110257 0.0197124 0.076397 0.0127568 -0.0631222 -0.0858661 -0.0620243 -0.0890973 0.0110743 0.0617031 -0.0539717 -0.0298762 0.0230175 -0.0641352 0.150403 -0.0430028 -0.0584773 0.0259401 -0.071361 -0.0770077 -0.0796486 0.0215164 -0.057197 0.0225429 0.0576394 -0.00954185 -0.0670561 0.0135786 0.0353836 -0.0191288 0.0492575 0.0104809 -0.136593 -0.0929567 0.00290543 -0.0978603 -0.0541082 -0.108035 -0.0439717 -0.0401955 0.091005 -0.0656266 -0.106455 -0.0196249 0.0810179 -0.0202784 -0.0346353 -0.00745551 0.00865246 0.0628302 0.0562089 -0.0501504 -0.0491221 -0.0743606 -0.104857 -0.0129074 0.098307 0.0118457 -0.0537396 0.0542718 -0.0494461 -0.0673288 -0.121423 0.0477725 -0.108616 0.0567121 0.0292252 0.00652152 0.0981177 0.0720888 0.0390075 0.00473353 -0.0612546 -0.0739594 -0.00308571 -0.0262451 0.0922767 -0.00923001 0.0174027 -0.0176615 -0.00450246 0.0304639 0.0403924 -0.0246258 0.0379301 -0.0321063 -0.0380145 -0.00533342 0.019827 0.070099 -0.0192239 0.0181552 -0.0709693 0.0369229 -0.0597164 0.00631185 0.0977413 -0.0962297 0.0119415 -0.083797 -0.0207183 -0.10163 -0.124633 -0.064807 0.121473 0.00713907 0.0783951 -0.0502342 0.0466936 0.0689113 -0.0747293 -0.0270163 -0.015609 -0.0372045 -0.0623911 -0.0381022 0.0872162 -0.0791695 -0.0338135 0.0407715 -0.0116218 -0.0188516 -0.0761307 0.00737863 0.0560725 -0.0741318 0.0130096 0.00223559 -0.0407222 -0.0786657 -0.047638 0.00135428 0.0361554 -0.053806 0.0176436 0.0329661 -0.0120573 -0.0266726 0.00367487 -0.140274 0.00856863 
-0.0422879 -0.124864 -0.0619527 -0.0367191 0.0594934 -0.0263419 0.0326902 -0.0160912 0.0713516 -0.048006 0.0138178 0.0487107 0.037575 -0.0169513 0.038751 -0.0144816 0.0618042 -0.0409063 -0.0813815 -0.0857353 -0.0397368 0.00970419 0.052022 -0.0138948 -0.121976 -0.0618514 -0.017049 -0.0210117 -0.107983 -0.027384 -0.106381 -0.127461 -0.020126 -0.0808557 -0.0577712 -0.00622041 0.0301917 -0.0351018 0.015476 -0.0154993 0.0986831 0.0420608 -0.011898 0.0156635 -0.0160698 -0.00666828 0.0455537 0.0461512 -0.0162283 0.00867365 0.07926 -0.00465891 -0.0249765 -0.0791295 -0.0520756 0.0463583 -0.0261685 0.00103694 0.0110901 0.0491155 -0.0652832 0.0725494 -0.0218607 -0.0889791 0.106633 -0.0981136 0.0535891 0.0787946 0.0913485 -0.0297756 0.0428811 -0.034904 -0.0520012 0.154042 0.0064628 0.0870381 -0.0677552 0.0572144 0.017127 0.094498 -0.0254795 0.0164758 -0.073995 -0.103051 0.00149304 0.0203924 -0.00816168 -0.0697442 -0.147799 -0.047421 -0.0157372 0.0239838 -0.0187539 0.00819091 0.00633508 -0.0610717 -0.0323014 -0.0799077 0.0822565 0.0917413 -0.0617682 -0.0660449 -0.0209997 -0.0123633 -0.0296256 -0.11129 0.0304269 0.0371291 -0.0847378 -0.0530761 0.0507748 -0.0647715 0.0138821 0.00767889 -0.0361262 -0.0556838 -0.0272503 0.0995597 0.0490652 0.0356079 -0.147625 0.0383737 -0.0370267 0.0533025 -0.00887124 0.068749 0.0456325 -5.93757e-05 -0.0432069 0.0687826 -0.12029 0.0329558 0.0379428 -0.00468212 0.0801439 0.0675839 0.0640202 0.017594 0.0984578 0.0013387 0.0154151 -0.047426 0.0525381 0.0642405 0.0695245 0.0658015 -0.0104202 -0.0509783 -0.0978445 0.082894 -0.070742 -0.00226971 -0.000125599 0.0148067 -0.0713487 0.0858973 0.00962233 0.104748 0.045585 0.0633186 0.0414812 0.00168559 0.033986 -0.10465 -0.0121367 -0.0876299 -0.153862 0.00779199 0.0330552 0.0174787 -0.060647 0.0992304 -0.0662753 -0.095322 -0.0321263 0.111299 0.152029 -0.0371956 -0.0467065 0.011722 -0.0118447 -0.069096 -0.0965087 -0.0317041 -0.0204311 -0.0539346 -0.00539388 -0.0289398 0.0953686 0.0671996 0.0383027 0.0487262 -0.0911983 -0.0432254 0.0710761 -0.0706565 0.00284168 0.0780074 -0.0501691 -0.029944 -0.0526882 0.0802382 0.031135 0.0304677 -0.019809 0.048721 0.0560591 0.00516441 -0.041604 0.00548796 0.0748068 -0.0206641 0.0675661 -0.0405272 0.0729763 0.0220793 0.0257924 -0.0842242 -0.00672337 -0.0239695 0.0451555 -0.166263 -0.00722782 0.0725584 -0.0270854 -0.134429 -0.0796606 -0.0998568 -0.00817847 0.148572 0.0872262 -0.140864 0.17839 0.126312 0.0199127 0.0230453 0.0162098 -0.0678632 -0.0297117 0.00515862 -0.0261798 0.0519894 0.0232737 -0.0371928 -0.117653 0.0115361 -0.04559 0.00685012 -0.0957273 0.125245 -0.0670189 -0.0826943 -0.0105921 -0.00872941 0.0585735 0.0131782 0.065355 -0.0372361 0.00652419 -0.0025435 -0.0713221 -0.00659623 -0.0626322 0.0823114 -0.0180461 -0.103088 0.0132537 0.011796 -0.0219254 -0.0441151 -0.0584795 -0.110939 -0.084293 -0.147421 -0.0120723 -0.0217055 -0.0583886 -0.00295965 -0.0329215 -0.0764907 0.00713689 0.114258 0.0560338 -0.0778269 -0.0126718 0.0782103 -0.0852957 0.0172305 -0.0856521 0.123495 -0.0453892 -0.084406 -0.182208 -0.0292622 0.0210627 -0.0553074 -0.0647124 -0.000143129 -0.0135643 -0.130577 0.0849986 0.0938362 -0.156186 -0.0956786 -0.076538 0.000546359 0.0671109 0.11763 -0.170834 -0.0700045 0.00542109 0.0675616 -0.0547403 -0.045875 0.0310145 -0.0272891 0.0184024 -3.67988e-05 0.0437006 -0.0231417 0.0678872 0.022957 -0.0255501 0.0121774 -0.0400057 -0.0730583 -0.0514481 0.0231825 -0.023843 -0.0236255 -0.118157 0.0804324 0.0034133 -0.0432395 -0.109404 -0.0891596 0.0537727 0.0609242 0.0392696 0.0743409 -0.00412916 -0.013394 -0.0598443 0.114242 -0.105613 0.0515493 0.0322349 -0.0725111 0.0755601 0.0654399 0.0666427 -0.0820751 -0.0121141 0.0861898 0.0833604 0.0164092 0.000863079 0.0275417 -0.0218102 -0.0933205 0.116542 -0.0566233 0.00386595 0.0257794 0.00609331 -0.0530934 0.0532753 0.0721024 0.0131476 0.0674844 -0.034152 -0.00818217 0.0744341 0.12801 -0.0685566 0.0906589 -0.00100793 -0.106413 -0.0822407 0.120876 0.00370926 0.0914437 -0.0274252 0.00599847 -0.103438 -0.0107421 -0.0554201 0.0502192 -0.0281399 0.0614248 -0.00979634 0.0853017 -0.00148155 0.0370579 0.00191663 -0.00155071 -0.0648351 0.0420047 -0.0377185 0.043589 0.00389852 0.107141 -0.0144005 -0.0291297 0.0258451 0.101046 -0.0512945 -0.0349755 0.0403977 -0.103011 -0.0038048 -0.0833002 0.0721922 0.00194942 0.0434485 -0.0858106 0.0191782 0.0185057 -0.0515231 0.0348012 -0.0697668 -0.0646295 0.0615141 -0.116303 -0.076626 0.0336812 -0.0440381 -0.0184839 -0.0111054 0.00473836 0.046291 0.0437144 -0.112371 -0.0753645 -0.0140886 -0.0299681 0.130359 -0.090846 0.0539663 -0.0615114 -0.110623 -0.00348087 0.00489149 -0.0531353 0.0417142 0.04349 -0.0459906 -0.0629026 0.051423 -0.0732065 0.0631704 0.0145525 0.0438974 -0.0251369 0.0179789 0.0563013 -0.0727133 -0.0826826 -0.0224099 -0.113602 -0.0312634 -0.0643314 -0.0453995 -0.00432929 -0.0773814 -0.0141254 0.0169957 0.0588356 0.0403409 -0.0195739 0.00691388 0.0216889 -0.0716294 -0.0438167 0.0423947 0.0833985 0.010937 -0.0189684 -0.100705 -0.0738463 -0.0969519 -0.0331489 -0.0892598 -0.214972 0.00852776 0.0685785 -0.0719899 0.0370772 0.020586 0.0217354 -0.053947 -0.120626 -0.0205297 0.0656242 -0.0510767 -0.10409 -0.0344562 -0.121627 -0.00408196 0.00928018 -0.0218188 -0.0302928 0.0198716 0.124916 -0.025195 -0.0374847 -0.000543409 -0.0112624 0.00858928 -0.0665136 0.0647024 0.0581945 
0.120662 0.0164648 -0.104809 0.0407735 0.143254 0.00987493 0.026408 -0.133513 0.0346929 0.0638599 0.0651211 0.0105666 -0.056772 0.0567401 -0.0951059 0.0544589 -0.010168 -0.0610998 0.0453796 -0.0377207 -0.12186 0.0113103 -0.117338 0.0599619 -0.084466 -0.0463164 -0.0735588 -0.0557653 -0.0262247 -0.0504483 -0.0817337 -0.0432911 -0.0224654 0.0940278 0.0449992 -0.045605 -0.0726255 -0.00121854 -0.010277 0.0263135 -0.0679409 0.0307798 0.00115275 -0.037083 -0.112253 -0.0352913 0.00634111 0.0281724 -0.0493342 0.034783 -0.0346895 0.0182122 0.0254565 0.0173886 0.0166667 -0.0667944 -0.00247865 -0.0277312 0.00612846 0.00100006 -0.00214042 -0.0889097 0.177838 -0.0242223 0.0997113 0.0152853 -0.0846738 0.161599 -0.0543894 -0.0304015 0.0263862 -0.0123106 -0.00685503 -0.0744298 -0.0233037 -0.000580401 -0.157217 -0.083039 0.0149165 0.00707469 -0.0502166 -0.127363 -0.15147 -0.0166364 0.0713108 0.0193937 0.00744832 -0.0495069 -0.00559969 0.0184664 -0.0789122 -0.0744906 0.0699271 -0.0150961 -0.0199045 -0.0575441 -0.103522 -0.000865483 -0.0087498 0.00505399 -0.0418258 0.0137602 0.0303558 0.0483704 0.0264574 -0.012858 -0.0104737 -0.00507135 0.0857828 0.0161302 0.0118824 -0.112201 -0.0645248 -0.048826 -0.0789686 0.121033 0.0164307 -0.0338615 0.144641 -0.12359 -0.0511619 0.067677 -0.00385392 -0.0339992 0.016446 0.135231 0.000996368 -0.0178247 -0.111824 -0.0522301 -0.00601865 -0.062721 0.0525487 0.0276935 0.0940813 -0.144078 0.00496729 -0.0691606 -0.0119688 -0.129045 -0.0163141 0.0676948 -0.0975056 0.0754569 0.100226 -0.102367 0.0250807 0.0892639 0.101835 -0.0637562 -0.0156006 -0.0494287 -0.0351884 0.0187281 0.0291688 -0.0250917 0.0534176 -0.110229 -0.0647415 -0.0376662 0.0875635 -0.0201964 -0.153755 0.0197356 0.0595972 0.0475781 -0.00459902 -0.0493982 0.0364341 -0.0518875 -0.0368246 -0.0639312 -0.0701323 -0.109322 0.00561206 0.0192958 0.0170612 -0.0811913 -0.0891129 -0.0877002 -0.0419204 0.0218907 0.0118378 -0.0798837 0.103248 0.0772312 0.0066162 0.0252449 0.13515 -0.0633272 0.03119 0.039627 -0.00761665 0.00983157 -0.0952515 0.0156668 -0.0412941 -0.0186438 -0.0397854 -0.0317939 -0.0473854 0.0414055 -0.0491514 -0.0894094 0.0523043 -0.101048 -0.0490698 0.0842123 0.0244962 -0.0236339 0.0351959 0.000774659 -0.132028 0.124411 -0.0654284 0.000608064 0.0299547 -0.120602 -0.0396235 -0.0406361 -0.064299 0.0339937 -0.0492011 0.0469455 0.0512636 0.0325607 0.0231416 0.0135938 -0.0363399 -0.00375177 -0.0818047 0.0528151 -0.00398841 -0.0669238 0.034677 -0.0467493 -0.075569 -0.0585958 -0.0235908 -0.0375436 -0.0902091 -0.121977 0.0298419 -0.00510905 -0.112577 -0.0161601 -0.0456151 -0.0581178 -0.0363204 0.0181666 -0.178606 -0.0970949 0.0292942 -0.048961 -0.106922 -0.0689884 -0.0543391 -0.0571869 -0.0526725 -0.0887873 0.0234835 0.0523662 -0.0125199 -0.0367901 0.00551982 0.0605439 0.047119 -0.0292174 -0.02811 -0.0349679 -0.051235 -0.0983803 -0.00559487 -0.000853033 -0.073477 0.0429758 -0.0643063 0.00124049 -0.0294839 -0.0563852 0.0779072 -0.118896 0.0273 0.00365868 -0.027791 0.00489505 0.00483001 0.0178928 0.038176 -0.0373249 0.032192 -0.0364981 0.0553094 -0.00295453 -0.099038 -0.0256694 0.0217654 0.0322018 -0.0487359 -0.0692717 0.134702 0.018929 -0.0219011 -0.0211352 0.100959 0.0508598 0.00161628 0.0261805 -0.00260755 -0.000951732 -0.00769752 -0.0505751 0.0361587 -0.114654 -0.0332337 0.0741574 0.00530012 -0.0405771 -0.0487596 -0.059126 -0.00764283 -0.111708 -0.0800707 -0.123038 -0.028133 0.0755315 -0.0589528 0.0400266 0.0147427 0.0464997 0.0461105 -0.0420409 -0.029295 -0.143098 -0.0342218 0.121196 -0.0602314 -0.045397 -0.0320636 0.0741164 0.114786 0.00893533 -0.0310306 0.0530623 -0.0072927 0.0754892 -0.0589744 0.00542178 0.0446609 0.00236619 0.0111465 -0.0653936 0.0367192 0.136993 0.0345151 -0.0726249 0.0429141 -0.111373 -0.0832229 -0.0258652 0.0122938 -0.110821 -0.0275896 -0.0565253 0.0565023 0.00821078 -0.0756941 0.0040122 0.0289924 -0.0531161 -0.0200618 -0.048934 -0.0747512 -0.140546 0.0366136 0.0925678 -0.0408965 0.067555 -0.0230699 -0.0974325 -0.0224773 0.0405175 -0.0196352 0.0116181 0.0218993 -0.0861941 0.0127179 -0.0303876 -0.0237243 0.0712702 0.0280849 -0.0628283 -0.0886147 -0.00218599 -0.101025 -0.0350198 -0.0566415 -0.00358396 -0.0519602 0.142527 -0.0105204 0.0223952 0.110907 -0.068898 -0.0619597 0.0572889 0.0193703 -0.0886486 -0.0261523 -0.0622262 -0.0110174 0.0227419 0.0899809 -0.0629279 0.0460015 0.0280877 0.0115384 0.0189233 0.0124701 -0.0279337 -0.0829894 0.0551987 0.0983133 0.0625622 -0.039524 0.0100284 -0.0180974 -0.0676596 0.0332612 -0.0983695 -0.135956 0.0617937 -0.0668488 -0.0672041 -0.0325579 -0.0666288 0.00857854 -0.0269367 0.149851 -0.0111077 -0.0417995 -0.0391565 0.0186229 -0.0199553 0.0173218 0.121636 0.00542909 -0.0827336 0.0531888 -0.0232739 0.137973 -0.0731428 0.0112829 -0.00475043 -0.111892 0.0014419 -0.00351637 -0.0747825 0.0142 -0.00702287 -0.0411254 -0.0716887 0.141757 0.0747648 0.0645361 -0.052814 0.00397537 -0.0153193 -0.0531573 -0.00275987 -0.066308 -0.0231926 -0.0134002 0.0345385 0.000622429 -0.0405538 0.0163755 0.0331903 0.0174553 0.0997281 -0.073921 -0.00420352 0.0549506 0.0211771 -0.0523959 -0.0549966 0.0285042 -0.0808288 -0.0814137 -0.0542153 0.0475066 0.0534902 -0.0409513 0.0232489 -0.0130252 -0.0556095 -0.0432119 -0.00181247 -0.0292907 0.0148139 0.0170067 -0.0111478 0.0163832 0.0758903 -0.00747391 -0.125099 -0.0619921 -0.0182962 -0.00816102 0.00199947 0.0391736 0.0702531 
-0.0220664 0.055271 -0.0984382 0.0634796 0.0889356 -0.108035 0.0570551 0.0278469 0.0643902 0.0341996 0.0329482 -0.0397947 -0.0178665 0.0930507 -0.135409 0.0212156 -0.0175883 -0.0343527 0.0186463 -0.0235695 -0.0931412 0.0315196 -0.00849355 0.0886716 -0.0101878 -0.0622811 -0.067835 0.0440431 -0.00786766 -0.0546628 0.0345457 -0.0556792 0.0165794 -0.0223918 -0.0264546 0.070382 0.0260378 -0.0420321 0.0050682 -0.00255362 0.0918695 0.0250416 -0.0603024 -0.0369327 0.0861978 0.110864 -0.0183222 -0.00944255 -0.0170025 0.0155221 0.0670393 0.0459714 -0.0773153 0.0345527 -0.00320605 0.0238357 -0.0380646 -0.105139 -0.0282734 -0.0725632 -0.113115 -0.0407637 0.0298938 0.0259308 -0.0138634 0.0498584 -0.12598 -0.144896 -0.108323 0.120836 0.0384318 0.00814625 0.0839921 0.0794416 -0.0114487 -0.131415 0.0226729 -0.0287302 -0.0977458 0.0312973 0.00256782 -0.146451 0.0553753 -0.0240706 -0.0919992 0.0262409 -0.139776 -0.0933794 0.0274127 -0.167852 -0.0727894 -0.0214057 0.0804462 0.00448885 -0.052681 -0.022634 -0.030333 0.019234 -0.146157 -0.125348 -0.0832628 -0.0615167 -0.0307413 0.0602452 0.00432052 0.0426469 0.00358014 -0.0334746 -0.0466321 0.00587102 0.0259385 -0.0114241 -0.100953 0.00952225 -0.047023 0.0267898 -0.0362395 -0.00949386 -0.0957123 0.140027 -0.0894613 -0.147322 -0.0742819 -0.0514891 -0.0311697 0.000316466 -0.13517 -0.0336492 -0.012849 -0.0616303 0.0596964 0.0911281 -0.0378513 -0.147003 -0.0336169 0.0364802 -0.141523 -0.0632247 0.134967 -0.0318426 0.00576811 -0.0637131 0.12129 0.0567883 -0.0296068 -0.0243503 0.00383479 0.0704468 -0.0199136 0.0145168 0.135957 -0.0772247 -0.0159501 0.014388 0.185435 0.0290864 0.031379 -0.0428426 0.0248367 0.0395266 0.0869759 0.0709883 0.0085854 0.00440369 -0.0967582 -0.0211736 0.0268437 0.0418978 0.040041 -0.0192701 -0.0194663 0.090324 0.00823711 0.0193 -0.0517843 0.14556 -0.0989781 0.0049496 -0.0557078 0.0104017 0.0343793 0.0391916 -0.0732404 -0.0971353 -0.0113803 0.00656711 -0.109883 -0.0785187 -0.00222483 0.0445428 0.0185864 -0.0339558 -0.0919167 -0.007552 -0.0947093 0.0432609 0.0259177 -0.0724943 -0.135812 0.0365031 -0.0240369 -0.0243369 -0.0758633 0.050708 -0.0202449 0.0152788 -0.0293223 -0.19761 -0.045717 -0.0600703 0.0466526 0.0478116 -0.013271 0.0761607 -0.0122433 0.00541087 0.0331167 -0.0744444 0.0301306 -0.0773194 0.0289206 -0.110391 0.014807 0.0814654 -0.0348655 0.089221 0.0512163 -0.190223 0.0113073 -0.0454995 0.0788905 0.0542349 -0.0395368 0.0343072 0.0304193 0.0272739 -0.0238548 0.0166819 0.0087133 -0.0397052 -0.0477743 -0.0624708 -0.0282067 -0.00700145 -0.0205851 0.107598 -0.0199954 -0.0453768 -0.0181421 -0.0419614 0.0284156 0.042903 0.0568734 -0.0230081 0.0771668 -0.0928557 0.049182 -0.0297726 0.0228393 -0.0175468 0.0330408 -0.0461151 0.0127014 -0.108036 -0.0115303 -0.0747248 -0.0448003 -0.042748 -0.0429556 0.0940291 0.0757331 -0.00860699 -0.0236038 0.106357 0.00674238 0.0571808 -0.0538026 0.0276976 0.0237783 -0.00190062 -0.0678847 0.000297418 0.0488872 -0.101151 -0.0167806 -0.0170082 0.0290005 -0.0503371 0.0210408 0.0165616 -0.0513525 0.000323321 0.0400275 -0.025451 -0.102608 -0.0138927 -0.0173222 -0.0133255 0.00478501 0.0305116 -0.0024292 -0.0548644 0.0847227 -0.0564891 -0.0487237 0.0183302 -0.043872 -0.100168 0.02662 -0.00714046 0.0511972 -0.179867 -0.0397366 0.0175755 0.0793272 0.0303991 -0.0263581 -0.0130682 -0.0724979 0.0251882 0.0220594 0.0068179 -0.0767819 0.0226 -0.0691008 0.0361715 0.0028221 0.0483021 -0.0342292 0.0721403 -0.0726243 -0.0310451 -0.0669041 -0.0999513 0.0358206 -0.02013 -0.0811321 0.0367811 -0.00875437 -0.0186663 0.0261521 -0.0450274 -0.0191819 -0.0216107 0.0378112 -0.0308492 -0.0381161 0.0144608 0.0505516 0.0364827 0.0786044 -0.0245845 -0.00300552 -0.0615063 -0.0490267 0.0894376 0.0484873 -0.0521044 0.111692 -0.00393715 -0.0349824 -0.114075 0.0530611 -0.00796892 0.0577783 -0.189344 0.000687272 0.00774122 0.109985 0.0800705 0.153307 0.0549912 0.0210365 -0.0485147 -0.00864171 -0.00920494 0.00512202 0.00943214 0.0586608 -0.0366654 -0.0905775 -0.126616 0.019404 -0.00612116 0.00125583 -0.0524427 -0.00308994 0.0518196 -0.0208966 0.0401901 -0.0805594 -0.00820827 0.0125043 -0.0194922 -0.137843 -0.0165633 0.0364996 -0.0416209 0.123954 -0.0416196 0.0792277 0.00767782 0.0243236 -0.050743 -0.0174158 -0.0367547 -0.0378619 -0.157459 -0.0772499 -0.047985 0.0155438 -0.0920567 0.139388 0.125059 -0.0458946 -0.0900327 -0.0111659 -0.0971982 0.00845453 -0.00421578 0.057315 0.0390096 -0.00206326 -0.0123951 -0.0781564 -0.0310938 -0.00129727 0.0355306 0.0158908 0.0302408 -0.0200734 0.0408418 0.0565018 -0.0273288 0.0540106 -0.104137 -0.151334 0.0597902 0.114883 -0.0582829 0.0541629 0.00755834 0.105474 0.055942 -0.0156879 0.0476779 -0.0532898 -0.0629889 -0.139084 -0.00954616 -0.0501805 0.00923738 0.0558924 0.127504 0.05245 -0.0585451 0.0566242 0.0590444 0.0174769 -0.0457523 0.0315613 0.031558 0.0686435 0.0222771 -0.0943179 0.0896006 0.0359834 0.0749787 -0.050458 0.0658205 -0.0551828 0.100426 0.0492416 -0.0706649 -0.152351 0.0369717 0.00545985 0.0620879 -0.00817859 0.085757 0.145842 -0.0238056 -0.0453594 -0.110528 0.0693029 -0.166255 0.00884795 -0.004477 0.0518509 0.0175753 -0.102911 0.0131612 0.010357 0.0763498 0.0664669 0.0262464 -0.00994202 -0.0616707 -0.0110917 0.0545802 -0.0333599 -0.0382505 0.0642067 0.157532 -0.00567287 -0.0561421 -0.0496104 0.0249883 -0.072449 0.0147528 -0.0697334 -0.0390732 
0.107713 0.0490004 0.042465 -0.0039315 0.135184 -0.130686 -0.0225357 0.0510968 -0.0821758 0.0703477 -0.000985336 -0.0363476 0.0693255 0.0735116 -0.0459927 0.0104415 -0.0501414 0.0458845 -0.0935432 -0.0320801 0.0283035 0.0997536 -0.00821723 0.0933309 -0.0811989 -0.039055 0.0116808 -0.00717453 -0.0541707 0.0700526 0.0775535 0.101554 0.0273693 -0.0617077 0.0099329 -0.0506636 -0.108917 0.00379973 -0.031912 0.0484604 -0.00559289 -0.0283553 0.0734272 0.00388107 -0.037642 0.0694159 -0.10358 -0.00631432 -0.0461294 0.0316252 -0.0873225 -0.0543564 -0.0521192 -0.028732 -0.05688 -0.0356952 -0.106198 0.035173 0.0425969 -0.136635 0.0268784 0.0102448 0.0333155 -0.072282 0.0293782 -0.122494 0.040358 -0.0642768 0.0142628 0.000387864 -0.143529 0.0365139 0.0373266 0.0492252 -0.0380007 0.0172861 0.0463278 0.0099174 -0.0289872 -0.0303963 -0.0209078 -0.00267151 -0.0609696 -0.0230327 0.0227748 -0.0765223 0.0347872 -0.00887405 -0.0129887 -0.0699634 0.00142794 0.0968724 -0.0305852 0.0836638 -0.0282238 -0.0482321 0.0194907 -0.053585 0.0308394 0.00948004 -0.0842352 -0.00707652 -0.0630847 -0.0652619 0.0414113 -0.024886 0.00486246 0.0165282 -0.0298896 -0.0163859 -0.0843758 -0.0735622 0.00214377 0.0510426 -0.0433851 -0.0384091 0.156281 0.00145844 -0.068262 0.0881945 -0.00142358 0.0891323 -0.0960077 -0.0837155 0.0432111 0.0494867 -0.0792791 -0.0158283 -0.0259115 0.0135511 -0.00487073 -0.0328197 0.0800737 -0.057807 -0.020454 -0.0748316 -0.0577892 -0.0851591 0.00633847 -0.133281 -0.0299944 -0.0839075 -0.0725874 -0.130792 -0.000105294 -0.121188 -0.0327631 0.0696419 0.0127832 -0.0297168 -0.00780976 -0.00818442 -0.0107383 -0.0450855 0.0326308 -0.0393153 -0.0131966 0.0039132 0.0695263 0.00962658 0.129807 0.0526613 -0.0578559 -0.0221856 -0.0314492 -0.0571832 -0.0218057 0.0924729 -0.0356879 0.110478 -0.0281231 0.0770259 -0.080957 -0.068757 0.0544334 0.0298523 -0.0524406 -0.0870566 -0.0420912 0.0678007 0.037339 -0.108158 0.02312 0.0187358 -0.0817559 0.153407 0.0373231 0.111982 0.00783768 -0.133631 0.00208593 -0.0291195 -0.0576629 -0.0546108 -0.00440934 0.109083 0.162533 -0.0506722 -0.010707 0.0515453 -0.0283093 -0.0767838 0.0603467 -0.0728296 0.022245 -0.0107992 0.0656142 -0.111077 0.0884702 0.0976521 0.0577818 -0.161854 -0.0170787 -0.106094 0.0192223 0.0314943 0.0198429 -0.0733866 -0.17931 0.0443745 -0.116961 0.0414926 0.00284092 -0.0251212 -0.0134349 0.00207628 -0.102105 0.00208352 0.00626365 -0.0404047 0.0296097 -0.0504722 -0.0719065 -0.00316977 -0.0712917 -0.0771297 -0.0570458 0.0935088 0.0171542 0.0519693 0.000795005 -0.0475727 -0.147403 0.0427105 -0.0173331 0.00181565 -0.13255 -0.102354 0.0264431 -0.0170714 0.019919 0.0541125 0.0553603 0.0163245 -0.0327282 -0.0622799 0.0860173 -0.10295 -0.0286847 -0.0845577 0.0800947 0.0287907 0.0784884 -0.0623805 0.0650779 -0.072005 -0.0314083 -0.00486579 0.0284044 -0.0155489 -0.0802401 -0.00466249 -0.0139184 -0.138739 -0.0323479 -0.0732845 -0.0675078 -0.0407054 -0.0243961 0.0231514 -0.0889073 -0.103447 -0.0313814 0.0175931 -0.0379537 0.0586635 0.138521 -0.0277441 -0.0346349 -0.0277534 0.0376688 -0.119531 0.0898668 0.118029 0.0437801 0.0300074 0.0431074 0.14894 0.018683 0.0598073 -0.0421133 -0.0689201 -0.0164469 -0.0450541 0.0178763 0.0125846 -0.0281941 -0.0240283 0.0575403 -0.0287614 -0.100275 -0.066372 -0.0798955 -0.0459154 -0.0271804 0.00300654 0.0555599 -0.0179824 0.025181 -0.163981 -0.0232155 0.0668746 -0.00596603 0.0659685 -0.116282 0.0333247 -0.140916 0.0154191 0.0342486 0.135799 0.0741209 -0.0484259 -0.062649 -0.074141 0.0661008 0.0289317 0.0411807 0.0518177 -0.0235377 -0.0952131 0.0737689 0.0540794 0.0207934 -0.107314 -0.0257086 -0.076374 -0.0211506 -0.0672213 -0.0114085 0.0138099 0.02688 -0.0153642 0.00642657 -0.0244532 0.032775 -0.0384593 0.0460627 -0.0606565 -0.0791141 -0.0428473 0.0037289 -0.0558071 -0.00663024 -0.0147844 -0.0898717 0.0598861 -0.0407889 0.00362566 -0.0935233 0.0404824 -0.0161017 0.096691 0.0599446 -0.0603453 0.0214022 -0.0461942 -0.076038 0.00267659 0.00208742 -0.0671188 -0.0131185 0.0353821 -0.0219106 -0.0422054 0.00118349 -0.0256814 0.0341357 -0.0547394 0.0248293 0.0387163 -0.00513696 0.073196 0.0345061 0.0467242 -0.0762155 0.0466575 -0.107199 -0.0141502 0.00279751 -0.0105573 -0.0205102 -0.00163316 -0.00436414 0.0548636 0.00651853 0.0196265 0.069387 0.0546846 0.0145227 0.0361344 -0.0207989 -0.0871305 -0.0328805 -0.00184736 0.0852621 0.0225293 -0.00162158 -0.0157838 -0.0046794 0.0854478 -0.017907 0.0241901 -0.0846966 0.0761884 0.00212229 0.116425 0.0260826 -0.0180658 -0.0108857 -0.00309644 -0.0714541 0.00601075 0.0216535 -0.00510735 -0.049265 -0.0202909 0.0205047 0.0834178 -0.0210093 0.0464997 -0.000280812 -0.042501 -0.0507774 -0.0369617 -0.0995172 0.106915 0.0153073 -0.0796096 0.00473881 0.0310654 -0.0569615 0.00564132 -0.028306 0.0139711 0.0339812 0.0891859 0.102537 -0.00207 -0.0364202 0.0469896 -0.0150289 0.0399359 -0.0616405 0.0876576 0.0646616 -0.0645245 -0.00843525 -0.0335453 -0.0730948 -0.0610147 0.0291305 0.0230415 0.0561082 0.0911632 0.03308 0.0277757 0.0426303 0.0648707 -0.010375 0.0955122 0.0904701 0.0387652 -0.0424719 -0.0281702 -0.059752 -0.0472645 -0.156535 0.00638665 0.000855003 -0.0367551 0.000910712 0.0270109 0.00524237 -0.00479596 0.0065864 0.00946726 0.0499392 -0.0108469 -0.0622124 -0.0502777 0.0254782 0.0111991 -0.0580086 0.124629 -0.0672925 -0.0735381 -0.0291701 -0.14409 -0.0761277 0.0375203 0.032922 -0.0392626 
-0.0179842 -0.0796575 0.0821239 0.0646342 -0.0398508 -0.0907647 0.140502 0.0136355 -0.073282 -0.0534504 -0.0279706 0.138418 0.0144247 0.0344956 -0.00271238 -0.0249681 0.0366822 -0.0948041 -0.0321257 -0.00150403 0.0559142 0.0232443 -0.00494022 0.0857006 -0.097211 0.0645677 -0.0420191 0.00906269 -0.0346779 0.052003 -0.0476932 -0.0301322 0.0145562 0.0674432 0.00508657 -0.0631383 0.0236622 -0.058582 0.104332 0.0419871 -0.00175356 0.0168111 -0.0283889 0.12197 -0.0431914 0.0441395 0.0348067 0.0106209 -0.0446364 -0.0836146 0.0323833 -0.0345374 0.0165975 -0.0975536 -0.0509653 -0.140011 -0.040244 0.166418 0.066308 -0.0186538 -0.0192736 -0.042122 -0.0354272 0.0276282 0.0246494 -0.0781584 -0.0607452 0.00376899 0.0360879 0.032887 0.0301923 0.0862386 -0.0539253 0.0965534 0.0289848 0.0182488 0.0128249 0.00321912 -0.0255743 -0.168184 0.0625359 -0.0259827 0.0400915 0.0848471 -0.04189 -0.0527712 -0.0745206 0.00978067 0.0033594 -0.0238622 0.00857388 -0.0344995 0.00878281 0.0327762 -0.0326969 0.0124073 -0.0121407 -0.101388 0.0634919 0.110273 0.0175171 -0.0117307 0.127968 -0.0861674 0.00762759 -0.0950883 -0.0929909 0.00333695 0.0516515 0.0153188 0.101052 -0.0061047 -0.085234 0.0434811 -0.0388571 -0.0256107 -0.000793555 0.0332762 -0.0380699 -0.0775388 0.0173434 -0.0865769 -0.0758263 -0.0133294 -0.0318307 -0.0159493 0.0988992 -0.0459162 -0.0775206 0.00219113 0.0233289 -0.0972818 -0.0682881 -0.000507979 -0.0171224 -0.0433008 -0.063763 0.0697154 -0.03874 0.00156609 0.0368235 -0.050043 0.0198227 0.00489146 -0.00752587 -0.102207 -0.127169 0.0209648 -0.0470515 0.0150043 0.07611 -0.00152079 -0.02172 -0.0763328 -0.0364177 -0.0328314 0.0455675 -0.0439609 0.116281 -0.0657178 0.0292322 0.0768105 -0.0911283 0.116548 0.0190635 -0.138908 0.0232436 0.0675756 -0.00392791 0.0150083 -0.0152924 -0.0643396 -0.0650485 -0.0324703 0.0104135 -0.00295754 -0.0688741 -0.0185829 0.065008 0.0277693 -0.130588 -0.00755258 -0.00310621 -0.0856092 -0.0502241 -0.00865451 0.0712646 -0.0494646 0.0514233 0.0141574 -0.0274989 0.00588582 -0.0439387 -0.00252673 -0.0031552 -0.00148749 -0.0190413 -0.166072 0.0597227 -0.155038 -0.00630547 0.071951 0.0437841 0.000951839 -0.0579916 0.00428908 -0.0730384 0.0148596 0.0685193 -0.0708786 -0.00668389 -0.0971626 -0.0232264 -0.0284868 -0.0662731 -0.0656062 -0.0218837 -0.0444213 -0.0755345 -0.00445895 -0.0307901 0.0102054 -0.0141427 0.0587505 0.0360272 -0.00608966 -0.0439314 -0.0707459 -0.0228391 -0.0468217 -0.0491381 -0.00655858 0.0278318 -0.014806 0.0801139 -0.0473036 0.00691389 0.011266 0.0521627 -0.0498651 0.00788853 -0.050875 -0.0200747 -0.0315885 0.062361 0.0981336 0.0500237 0.0310983 -0.0297635 -0.0030817 -0.0820935 0.0380053 0.0256105 -0.214693 -0.015423 -0.0362328 -0.0645103 -0.0653439 -0.0764367 0.0242414 0.177754 0.0210472 -0.00786223 0.0595867 0.0380488 -0.0769158 -0.0786484 0.0280277 0.0223877 0.0225742 0.109389 0.0139792 -0.0956474 -0.0837959 -0.011421 0.0231178 -0.045174 -0.0436286 -0.0228551 0.0206975 -0.0846302 0.00923405 -0.0859742 -0.0287995 -0.0110432 0.127881 -0.191709 -0.0907796 -0.0418345 -0.076133 -0.0104712 0.00834428 -0.0334771 -0.109975 -0.0346699 0.106406 -0.0149678 -0.0781587 0.151009 0.0678539 0.0863724 -0.0057829 0.0414805 0.0464292 -0.0666075 0.0937934 0.0119543 0.143878 -0.0732774 0.0110161 -0.129336 -0.0549975 -0.0365445 0.0295989 -0.0119448 -0.0120941 -0.106468 0.0756684 0.00234881 0.0445176 0.0199904 0.0873573 0.0536124 -0.0525591 0.0341988 0.0411078 0.00594469 -0.104167 0.048594 0.0414579 0.0166401 -0.0389183 -0.0145517 -0.032519 -0.0261782 -0.0195853 -0.0646009 0.0682672 0.0306775 -0.128747 -0.0209774 -0.00747192 0.0777485 0.197436 -0.0601718 0.00708935 -0.078506 0.082923 -0.0773357 0.0211013 -0.0758958 0.0527921 -0.197898 0.0233258 0.0865112 -0.0739196 -0.0105906 0.0322906 -0.0641291 -0.081625 0.0600736 -0.0436847 0.0108327 0.00564945 -0.0347936 0.00176142 -0.0508562 -0.00419352 0.0292144 -0.0585622 0.0494132 -0.0415667 -0.011622 0.0151784 0.0125955 -0.0880638 0.00444153 0.0508441 -0.0327831 -0.0618967 0.0657851 0.0874632 0.0553024 -0.0680071 0.031541 0.0843433 -0.00320728 -0.0704627 0.0137343 -0.040442 -0.0164431 -0.0622865 -0.143169 -0.117899 0.0455433 0.0144349 -0.0741806 -0.00381823 0.028678 0.0312023 -0.0445708 -0.0220593 0.0491833 -0.0695951 -0.039005 0.0550756 0.0615953 0.00337558 -0.101878 -0.0714042 -0.091665 -0.0400392 -0.00594003 0.0258213 -0.00352969 -0.0420242 0.00204806 -0.0205914 0.015781 -0.0538964 0.0453874 0.00506263 0.105498 -0.0281461 -0.0506409 -0.0633969 -0.0509562 0.0629672 0.0292815 -0.0660517 -0.0387262 0.0397827 -0.0417444 0.0725914 0.00604093 -0.0107826 -0.0800133 -0.0725172 0.0359556 0.124111 -0.0573307 -0.0584552 0.0540544 -0.0838362 -0.0460888 -0.0555008 0.0621785 0.0243507 -0.000572749 -0.0484796 0.11545 -0.0458884 -0.00889976 0.00641103 0.112167 -0.0307245 0.012767 0.0341312 -0.0736015 -0.00112642 -0.0398111 -0.00137603 -0.100321 -0.0810898 -0.0803039 0.0114391 -0.0577508 -0.066166 -0.150543 -0.0516769 -0.145656 -0.0336964 -0.104639 -0.127112 -0.117062 -0.0450518 0.0336897 0.00104091 0.00726359 -0.015707 0.10283 -0.105208 0.0428741 0.0315104 -0.0310271 -0.0870535 -0.080508 0.02049 0.055857 0.0499204 0.0792988 0.00382261 -0.0629922 -0.0101558 -0.178349 -0.00479077 -0.0578875 0.0703684 -0.125775 -0.081759 -0.221614 0.00127487 -0.144362 0.0327642 -0.129317 -0.0919692 -0.0145647 0.0118717 -0.0455419 0.0258197 0.0312896 0.013166 
0.063155 0.0309979 -0.0435856 -0.044183 -0.0859088 -0.0949742 0.00358925 0.0630642 -0.0618844 0.0143788 -0.150257 -0.0679839 0.00759681 0.0715408 0.148759 -0.143703 0.0269849 0.0884361 0.0280866 -0.016543 0.0983536 -0.146258 -0.0704793 -0.00678536 -0.00301277 -0.0296414 0.0784023 -0.0854232 -0.0637461 0.00208966 -0.0723335 0.0371964 -0.00394709 0.0594651 -0.148905 -0.0487563 -0.00842253 0.0445968 -0.025852 -0.0420397 0.00258581 -0.0182255 0.0703161 -0.0114339 -0.0534 -0.114121 0.00208024 -0.0451602 0.0698305 0.114877 -0.041831 0.0202863 -0.00186271 -0.0905585 -0.00263971 0.0844671 -0.0175821 -0.161314 0.00235596 -0.0170672 -0.0529954 0.0510898 -0.0667724 -0.0162857 -0.00937536 0.0483995 0.0188467 -0.0765362 0.03689 0.00675784 -0.001876 -0.0269964 0.0533424 -0.0827239 0.00114963 -0.0386207 0.0741573 -0.157663 -0.0518585 0.177601 -0.0617203 -0.0155032 0.0867088 0.0191471 0.0834991 -0.0341077 0.0473042 -0.000713161 0.0226287 -0.101062 0.0217348 -0.0475297 -0.0709793 -0.0314841 0.0513999 0.113217 0.0405332 0.084259 -0.0243415 0.0641036 0.0244119 0.0865221 0.199477 0.0431697 -0.00574975 -0.0471465 -0.0469971 -0.0558348 0.0477067 -0.0548903 -0.0393442 -0.0467542 0.0459694 -0.0116953 -0.117489 0.023378 0.0253242 -0.0233798 0.0959707 -0.032849 -0.119802 0.0622575 -0.0689065 0.0618392 -0.00215195 -0.0720556 -0.0514945 0.0187749 -0.00475555 -0.00958123 -0.0143065 0.0295821 -0.0714106 0.0305848 0.00399369 0.0459673 -0.0329013 -0.0137901 0.0418932 0.0878294 -0.0125024 0.0861622 -0.0243389 -0.0353492 -0.0836342 0.038878 0.120129 -0.0952636 0.116122 0.0380087 -0.0218131 -0.0322073 0.0860972 0.0533815 -0.0268139 0.121556 0.0887874 0.0433701 -0.0666367 -6.94062e-05 0.0511547 -0.0923598 -0.0372611 0.00886914 -0.0387332 -0.0208213 0.0322145 -0.143666 0.0714257 -0.0293437 -0.0662535 -0.0545216 -0.162715 0.00142909 -0.0872404 0.0277575 0.0202602 -0.0261227 -0.0244316 -0.066442 0.0456455 -0.0234843 -0.0784667 -0.0401729 0.00788719 0.0353235 -0.128834 -0.0077292 -0.0170524 0.103668 0.00796221 0.0628872 0.0873222 -0.0239728 0.0911824 0.0854474 -0.0200525 0.0204019 0.126634 0.00641875 -0.0365578 -0.0242675 -0.0791939 0.0122037 0.0729727 -0.183173 0.10867 -0.027686 -0.0127772 0.00837513 -0.0348212 -0.00308245 0.101659 0.0742154 0.0184499 -0.0907829 0.0782928 -0.0428227 -0.0785788 -0.00135531 0.0290782 -0.0385619 -0.0174971 -0.0816953 0.0754678 -0.00817536 -0.00715088 0.112829 0.0661559 0.0803502 -0.00290136 0.0920853 -0.0100919 -0.0722098 0.0629116 0.0308545 0.116918 0.0550638 0.0470475 -0.0442249 -0.0198899 -0.0516387 0.0878659 0.00660736 0.0549866 0.0766613 0.0528584 -0.0996933 -0.0338965 0.0066196 -0.0345862 -0.0563192 0.0997713 0.0613352 0.00142794 -0.0633312 0.0173305 0.0609658 0.0693037 0.0554046 -0.090176 0.109062 0.016846 0.0758473 0.0389513 0.0324113 0.0345581 0.00350458 -0.0760214 -0.0186001 0.0310321 0.0596277 0.00374105 -0.0801716 -0.0072132 0.0310707 -0.04452 0.00335871 0.0568977 0.0954617 0.0528298 -0.0775995 -0.0158758 0.0335751 0.0294349 0.117557 -0.0630189 0.0261713 -0.0422236 0.0905303 -0.0689322 0.0331469 -0.0431321 0.0918123 -0.0428111 -0.0616335 0.00349067 -0.0341376 0.0534885 0.015197 0.0489329 -0.158434 -0.0621394 0.0395175 -0.0333496 -0.013119 -0.115475 -0.09806 0.0415665 0.093806 0.0358615 -0.0325968 0.0316232 -0.00696137 -0.0677473 -0.173888 0.0740181 0.0337303 0.0758199 -0.0161876 0.0280908 0.0582358 -0.0825293 -0.0500099 0.122841 -0.0150149 0.0692647 0.0905986 0.0966914 -0.0210715 0.0044564 -0.0314168 -0.0352806 -0.0571201 0.02004 -0.00348268 0.0754662 0.0391471 0.0923569 0.0337623 0.00103438 -0.0217927 -0.00562119 -0.0116692 0.121481 -0.0506652 -0.00923192 -0.103559 0.0176776 0.0933755 0.0170489 -0.0573967 -0.0498841 -0.0115868 -0.0101924 -0.00050336 0.079627 0.0591572 -0.0596038 -0.0387757 -0.00274676 -0.0274636 0.0356081 -0.0241284 -0.0607777 -0.0206314 -0.0133484 -0.0696433 0.0402679 -0.00360499 0.0139816 -0.0258956 -0.0381677 0.0772429 -0.104994 0.0107824 0.00284778 -0.0588375 -0.0730633 0.0902448 -0.0475617 0.0099119 -0.0167232 -0.0271265 0.0106615 -0.0254235 -0.0412059 -0.153733 0.108557 0.0328398 -0.00239404 -0.0472046 0.0872529 0.0674734 -0.0598418 0.0213998 0.0351655 -0.0359043 -0.00865018 -0.00634173 0.0369256 0.000145064 -0.00153096 0.0315809 -0.00350627 0.104768 0.0210281 -0.0253299 -0.0210326 0.0273383 0.0936314 -0.0951228 -0.033712 -0.110247 -0.0138536 -0.0118203 0.0847538 0.0379258 -0.0676927 -0.00785051 -0.0841801 -0.0337536 0.0551414 -0.0737622 -0.0967818 -0.0816801 -0.13276 0.116442 0.0536547 0.0633205 0.00121112 -0.160949 0.0117245 -0.0333457 0.0462917 -0.0312562 -0.097062 0.0243929 0.145073 0.113857 -0.00408507 0.0444956 0.162903 -0.032711 -0.00078476 0.0690861 -0.0146504 0.0133002 -0.0684134 -0.0356046 0.100618 0.000324025 -0.0764152 0.0479354 -0.0384066 0.0502764 0.0834395 0.0683465 -0.049642 0.0114412 0.0170337 0.0106074 0.0561689 -0.0730427 -0.0118941 0.0375522 -0.0801966 0.0527659 -0.0678935 0.0742638 0.00403289 -0.0178291 0.0357131 0.00139132 -0.043737 -0.0764742 -0.0264691 0.00387487 0.00415889 0.0130796 0.0540052 -0.0804822 0.126647 -0.0293365 -0.0822251 0.0151429 0.0665638 -0.053871 0.00711193 -0.0205865 -0.0311029 0.00324821 0.0577357 0.122861 0.0300081 -0.0476526 -0.0720386 0.123519 -0.0600813 -0.099997 0.0582074 -0.0330375 -0.00249777 0.0740806 -0.0467822 -0.0633911 0.0815638 0.0072819 -0.0551366 0.0368202 -0.0214772 0.0153595 
0.0613124 -0.0739053 -0.0289924 -0.0576526 0.0314178 -0.0785219 0.143349 0.00445406 -0.022959 0.0745111 0.0161855 -0.0770983 0.00247622 0.081466 0.00090894 0.0278299 -0.0977458 -0.0289483 0.0584251 -0.0279009 0.0477725 0.0972778 -0.0243499 -0.0329642 0.00525935 -0.13427 -0.0395732 0.0102787 -0.0440419 -0.0169623 -0.0640402 -0.104186 0.0458886 -0.078808 0.0731847 0.0333861 0.142065 -0.101147 -0.0670819 0.0525149 0.042962 0.01496 0.00398151 -0.0395145 -0.0246232 0.0904398 0.00359821 -0.0189266 0.0937563 0.0509829 -0.0132589 0.0594657 -0.0818546 -0.0191706 0.0537331 0.026703 0.0551351 -0.0255708 -0.06385 -0.0373958 -0.0101719 0.0936357 -0.0109825 0.0299176 -0.0777836 -0.0173706 0.0614313 0.0678271 -0.00908625 -0.0701987 -0.0663679 0.0847073 -0.0699446 -0.00890026 -0.00135919 0.0870023 -0.0274324 0.0823036 0.0268569 0.0266389 0.00903531 0.0409716 0.0248723 0.0309359 -0.0419129 0.0463587 0.00450805 0.0812828 -0.0242737 6.47629e-05 -0.0212383 0.0600318 -0.0542287 -0.0848698 0.100022 0.107717 -0.0457962 0.0115716 -0.016653 0.137341 -0.0730876 -0.00644806 -0.0826651 0.03071 0.036592 0.128844 -0.0834299 -0.0782546 -0.08273 -0.0958222 0.0266578 0.0740188 0.0152797 -0.0318025 0.0351648 0.0439948 -0.00356043 0.0242439 -0.181721 0.149176 -0.0840968 -0.128947 -0.101181 0.0624947 -0.0423391 -0.052718 -0.00387581 0.0185216 0.0760787 -0.0949817 0.0621501 -0.0227122 -0.0160052 0.018801 -0.0142747 -0.0943474 -0.0584248 -0.0993408 0.106868 0.0167626 0.0263188 0.0237511 0.0760215 0.00973298 -0.00371099 -0.0267129 -0.0337234 -0.0474979 0.0104182 -0.00804898 -0.0302225 -0.102949 -0.105306 0.0885293 -0.0473276 0.00137709 -0.205894 -0.0934586 -0.0349743 0.0214803 0.137854 -0.00906317 0.0878137 -0.0115871 0.00861513 0.0995555 0.0023635 -0.00470405 0.087488 -0.094429 0.0117147 0.00114225 -0.00515647 -0.136462 -0.0385143 -0.0620975 -0.071235 -0.0136886 -0.0322439 0.0843444 -0.0884921 0.0663509 0.0586041 -0.00933641 0.0416438 0.0318828 -0.0423761 -0.0681955 0.0255054 -0.0656401 -0.0964695 0.0630842 0.0946223 0.0282892 -0.0286672 -0.0963693 -0.0264036 0.0329913 -0.0456581 0.0169752 0.14888 0.0318805 0.0474903 -0.0317728 0.0335457 -0.0127006 -0.00280309 -0.0167915 -0.0343863 0.0492945 -0.1275 0.0949395 0.079389 0.0218351 0.0368902 0.0035472 -0.000970942 0.0771089 -0.0539301 0.0234747 -0.0593154 -0.104084 0.0602306 -0.00195168 0.0910467 0.00699085 -0.0104191 -0.094016 -0.0255614 0.0600339 -0.00136313 -0.0305278 0.00367388 0.0707122 -0.0536314 0.0665183 -0.208887 0.0784137 -0.0103778 0.0343773 -0.0248689 -0.107073 0.0299098 -0.00916412 0.00462259 0.0304377 -0.0704493 0.111671 -0.0299285 0.1258 -0.0815891 -0.110776 0.00535143 -0.0255165 0.00559997 0.0276604 0.0624935 0.115508 -0.0537442 0.205683 -0.0811783 0.0629159 -0.0413813 -0.0620193 -0.0672491 -0.0474561 0.0176023 -0.0177708 0.00662781 -0.0391584 0.0816245 -0.0668576 0.106854 -0.0757579 -0.0396223 -0.0807502 0.0240437 0.0570711 -0.000521039 -0.00828053 0.0965278 0.00331575 0.0678689 0.0276303 0.083323 -0.00622677 0.0125708 -0.108317 -0.0522774 -0.060579 0.0279156 0.090807 0.0363442 -0.015916 -0.0450702 -0.0068852 0.131281 0.0102576 0.0903906 -0.0599728 -0.0909427 0.00982242 -0.0150228 -0.0250818 0.0207167 0.0017598 -0.000822592 -0.011536 -0.0158256 0.00163461 0.0203356 -0.0139397 -0.0750936 -0.0155423 0.128357 0.117929 -0.0342639 -0.0734227 0.0229886 -0.0547922 0.0427861 0.0748703 -0.0157589 -0.064421 0.0514314 -0.0162913 -0.0578526 0.0408182 -0.0878318 -0.0113245 -0.0511464 0.029343 0.0284099 0.00966099 -0.0463454 0.0359355 -0.0161978 0.0983164 0.0298349 -0.0171046 -0.00349557 0.0625305 -0.0285977 -0.0483305 -0.0533945 0.0477912 0.0207772 -0.0945651 -0.0255438 0.204204 -0.0426489 0.092959 0.0608055 -0.0875958 -0.00992582 0.00607293 0.0611273 0.0571108 0.0728137 0.00967384 -0.0524976 -0.00657457 0.0567985 0.0480232 -0.0312075 0.0248614 0.103385 0.0223646 -0.0324024 -0.00557363 0.0203991 -0.0520205 0.0600957 0.0264809 0.0476047 -0.123097 0.00721157 -0.0492495 -0.0128878 -0.0784441 0.0929806 -0.077128 0.0406274 -0.0356549 0.00664756 0.0854494 0.0148819 0.0514469 -0.0184685 -0.112304 -0.0806797 0.0247047 -0.0190105 0.0434838 0.00510852 -0.186745 0.162824 0.0618787 -0.123192 0.0072004 0.0283924 0.0526295 -0.0132539 -0.133375 -0.0625115 0.00533873 -0.0331622 -0.00109979 -0.00420774 0.115767 0.0025275 0.0853388 -0.0815659 -0.0448091 -0.0274124 -0.0202192 0.0179078 -0.054451 0.0723334 -0.00187705 -0.093508 0.103252 0.152537 -0.12396 0.111399 0.00491653 -0.0200681 -0.0673866 0.00383489 0.0263919 0.0401801 0.0602214 0.0474498 0.0980785 -0.0359932 -0.0575205 -0.0382849 0.0503078 -0.0254857 0.0653118 0.0218878 -0.0160606 -0.113932 0.0384347 0.00404439 0.0344889 0.0511114 -0.00493051 0.00943033 0.0520567 -0.0497492 0.0695836 -0.0632874 0.0634664 -0.000911258 -0.0331849 -0.0445567 0.0160333 0.0393134 -0.0260664 0.0252285 -0.0386664 -0.0859705 -0.0499103 0.00580757 0.027003 -0.0462612 -0.0270654 -0.0453041 0.0392872 -0.0223382 -0.056808 0.0628357 0.0935533 -0.0732852 0.106722 0.0343189 0.00887453 0.00700936 0.0458804 0.0264446 0.0113607 0.0653192 0.112736 -0.0831568 0.0570827 -0.0492489 -0.0287581 -0.000833404 -0.0864747 0.0129235 -0.0882719 0.0140594 -0.0793961 0.0751101 0.00661652 -0.0751288 0.00155002 -0.0683889 0.0697573 0.075158 -0.149252 -0.0846109 -0.0160317 -0.000267243 -0.0207697 0.015609 -0.0716136 0.133081 -0.0775828 -0.0291144 -0.102654 
0.0469936 -0.0396206 0.0648329 0.0292735 -0.00799663 -0.0884073 -0.0337854 -0.0263303 -0.101046 0.036371 -0.00664069 -0.0693761 -0.030173 0.0353105 -0.0637797 0.0588512 0.0460813 -0.147401 -0.0625693 -0.0839418 -0.0154676 0.173172 -0.0263328 -0.135473 0.0548483 -0.0777806 0.052986 -0.0570608 0.0226846 0.145929 0.0856016 -0.0048128 0.0394555 0.0446448 0.0296948 0.0850867 0.0905736 -0.0680342 0.0431965 -0.0641963 0.0614709 -0.0327632 0.0628237 0.0279419 -0.0476892 -0.0968978 -0.0938365 -0.00218561 -0.0190794 0.0671655 0.053776 0.0219332 0.0500135 -0.00235479 0.0271 -0.116549 -0.0406945 0.022841 -0.12069 -0.0153994 -0.126448 -0.0885081 -0.0419965 -0.0145285 0.00327691 0.0114166 -0.0251807 0.0241078 0.11137 0.033665 -0.166674 0.0575053 0.135402 0.030894 -0.0606709 -0.00729907 0.0886637 -0.0213299 0.0764226 0.00287577 0.0570544 -0.00667536 0.0459108 0.0177849 -0.0872852 -0.00807327 0.0407757 -0.0312061 0.0737198 0.00696014 0.0426712 0.0217955 0.0973612 0.0418417 -0.0546808 -0.0300309 -0.09446 -0.0705202 0.0389931 0.0330099 -0.0669806 -0.12161 0.0608979 0.0709568 0.014422 -0.0365882 0.00505058 -0.0116064 0.0149794 0.0258797 -0.048487 -0.0503619 0.00352103 -0.0648913 0.0783821 0.0488749 -0.030319 -0.0689312 -0.0130509 0.0277961 0.092191 -0.0194457 -0.0192131 -0.0198564 0.0299239 -0.0245589 0.0365477 0.0985716 0.126534 0.0106588 0.0226296 -0.00483719 0.184997 -0.0521232 0.0284673 -0.0434409 0.0871654 0.0665194 0.114586 0.0111395 -0.0515916 -0.0802827 -0.0523532 0.0799301 0.0184526 -0.0184138 -0.0530083 0.0164609 0.133135 0.0162936 0.00656102 -0.0502252 0.0375174 0.0701738 0.0127745 0.0946948 -0.044922 -0.048653 -0.0816967 0.0276266 -0.0636372 -0.065456 0.0108382 0.0477399 -0.161111 0.0113485 0.110159 -0.00520694 0.0462696 0.0761841 -0.0282944 0.0592714 -0.0571708 -0.0565156 0.0192727 -0.0649882 0.0954419 0.0232118 -0.0143877 -0.0862023 0.0886438 0.00461622 -0.08067 -0.030193 -0.0455668 -0.121183 0.0441414 -0.00770739 -0.0154322 -0.0583734 -0.0586762 0.0129669 -0.0420176 0.0628963 0.0438318 -0.0466333 -0.12339 0.018871 -0.00365489 -0.0509669 0.126426 0.0328691 0.0645256 0.0028132 -0.0651951 0.00252242 0.0949306 0.0161 -0.0345475 0.0076819 0.088371 0.0440783 -0.071701 -0.0220278 -0.0629935 -0.116261 -0.0970784 -0.0252136 -0.0618121 -0.0605511 -0.045806 0.0852975 0.123584 0.0190186 -0.0235642 -0.0484762 -0.0154272 -0.00582784 -0.0617806 -0.002331 -0.0744814 -0.0148876 -0.0695778 -0.00913879 -0.134466 0.0511487 -0.180446 -0.0369186 0.0934071 0.0701532 0.0715696 -0.052441 0.0216164 -0.0983745 -0.121177 0.0241093 0.089844 0.125168 0.00373609 -0.0160365 -0.0671159 0.0575241 -0.0974487 -0.0751073 0.0481843 0.0252148 -0.0344035 0.0729664 0.0662206 -0.11626 -0.0116103 -0.0227562 -0.0303846 0.00760196 -0.0496062 -0.0838679 -0.0212833 -0.0230238 -0.0758904 -0.0526767 -0.084741 -0.0174287 -0.0208235 -0.0978011 0.0360852 -0.0645195 -0.125166 -0.170395 -0.182695 0.0368082 -0.12884 0.0402139 -0.112028 -0.0319527 -0.0427344 0.0731995 -0.0169734 -0.05915 -0.0671059 -0.0277171 0.0359282 -0.00762244 0.0889394 0.0861 0.0655745 -0.1373 -0.0204141 -0.0465745 -0.0181263 0.070255 0.0144096 -0.0280261 0.0550281 -0.027211 0.0569936 -0.0732379 -0.0348338 -0.0956687 0.0024693 -0.0118857 -0.0128358 0.122497 -0.00800548 0.0885122 0.159353 0.0214555 -0.031303 0.0617404 -0.00991066 0.0243665 0.0184433 -0.167965 -0.0497827 -0.0164927 0.063278 0.00524648 0.0512625 -0.0249984 -0.0478517 0.103032 -0.0317952 -0.0647074 -0.0211179 -0.010216 0.0141994 0.0251602 0.0268709 -0.0464019 -0.0630867 0.00485075 0.0296132 -0.00186014 -0.0623196 -0.0767106 0.00283831 -0.00454099 -0.0365724 -0.0295454 0.0097655 -0.0202895 0.0439514 -0.0414162 -0.0225252 -0.0324335 -0.094896 -0.106707 0.0066487 -0.0339578 -0.0585999 0.107997 -0.0750064 -0.0927447 0.0905859 0.13746 0.0564945 -0.0157812 0.0617514 0.0801421 -0.0147282 0.0355736 -0.0523063 -0.0428528 -0.000854073 -0.0310432 0.0224795 0.0779231 -0.0537638 0.0868823 0.00312786 0.0748754 -0.0136576 -0.00707945 -0.0431719 0.0961467 0.0409008 0.0106884 -0.00131706 -0.0692294 -0.00820395 -0.0456968 -0.0260574 -0.00218638 -0.0208396 -0.115561 0.0281388 0.105974 -0.0229236 -0.117707 0.0371853 -0.146316 -0.123942 -0.0532017 -0.0738814 -0.0331435 -0.0213515 -0.00903835 -0.00765975 -0.0902103 0.0221119 0.150993 -0.00784869 -0.0609015 0.0557967 0.0749785 -0.0558275 0.000303062 -0.0321327 0.0577257 0.074516 -0.00978346 0.0628185 0.0604286 0.00865938 0.00108344 -0.053827 -0.02951 0.0377074 -0.0452521 0.134127 -0.0259421 0.00880532 0.049415 -0.046429 -0.0444274 -0.0125027 -0.0203605 -0.087675 0.00847741 -0.073327 0.137438 0.023392 0.191818 -0.0371881 -0.136338 0.00498722 -0.0430642 -0.0365444 0.0267023 -0.0301584 -0.00518687 0.0430039 0.123169 0.00460113 0.0341062 -0.118188 -0.0318842 -0.0312752 -0.0313921 0.047084 -0.113457 -0.0695122 -0.0360558 0.0629954 -0.0125281 0.013148 -0.0388619 -0.0339562 0.0384797 -0.0434693 -0.0837769 0.0087025 0.0130534 -0.170993 0.0378594 0.0156596 0.0424604 -0.0904427 0.0074513 0.00798412 0.0467675 -0.0392127 0.119071 0.00809446 0.0264404 -0.0727733 -0.00875461 -0.0771996 -0.104133 0.0272953 -0.125795 -0.107581 -0.0245947 0.0821863 -0.0115325 -0.00934271 -0.0758006 -0.0735361 0.0198847 0.0584092 -0.0218619 -0.117908 0.0303833 -0.047049 -0.0932474 -0.0566813 -0.0616053 0.0475556 -0.0153594 -0.0422363 -0.0904104 0.013045 -0.109969 
0.0574477 0.0540692 0.0710524 0.0549846 0.0685842 0.0549254 0.0465376 0.109169 0.10624 0.0675906 