-0.0232392 -0.000456836 -0.135575 0.0188792 -0.0272091 
-0.00622516 -0.0644823 0.0165817 0.0569112 -0.0114563 
0.0605977 -0.0447815 -0.0786184 0.0304161 -0.0538866 
0.0810219 -0.0661443 -0.183525 -0.0744689 -0.0474927 
0.0528905 -0.0517108 -0.0385928 0.010062 -0.0197208 
0.153367 -0.0206427 -0.015847 -0.161377 -0.0720806 
0.000694391 0.11019 0.101255 0.0685657 -0.0131812 
0.114848 0.0201311 0.0755272 0.0351976 0.0343917 
0.0511539 -0.00540601 -0.117073 0.130369 -0.0416839 
0.0369579 -0.039258 0.0517583 -0.00480609 0.0117143 
0.0465202 0.115382 0.0866533 0.0796618 -0.14024 
0.0898741 -0.0983386 0.0121966 -0.0749693 -0.116892 
0.0893054 -0.117247 -0.101196 -0.107861 0.111859 
-0.0426241 0.0616359 -0.00418975 0.0754203 0.0312769 
-0.0645887 0.00357896 -0.143287 0.0346937 0.0246837 
0.0404971 0.0240378 0.213468 0.0239835 -0.225558 
0.144183 -0.145146 0.0824504 0.0251513 -0.000429625 
0.0387035 -0.0703545 0.11009 -0.0259372 0.0658409 
-0.0171163 0.0173801 0.0362374 -0.0386851 -0.044293 
0.0715335 -0.0407857 0.0183226 0.0948811 -0.173299 
-0.0202196 -0.0270532 -0.0467421 0.0930602 0.000868582 
0.0947308 -0.00755386 -0.0181189 -0.115535 0.019349 
0.0547493 -0.0223038 0.0191312 -0.0212644 -0.125483 
-0.00792853 -0.109599 -0.0131428 0.0230539 0.00845874 
0.104759 -0.029404 -0.00488036 -0.0495811 -0.119267 
-0.0715658 -0.0333109 -0.0509847 -0.0152324 -0.16524 
0.0644377 -0.0746545 0.0237849 0.0797008 -0.107741 
-0.070628 -0.0422182 0.0674621 0.103389 -0.0768378 
-0.0321633 -0.135596 0.0577494 -0.00628171 0.0197555 
-0.0379668 -0.0219696 0.069169 -0.0162127 0.0519182 
0.0143979 -0.0738685 -0.00759293 -0.00741377 0.0981423 
-0.00628931 0.00831667 -0.0225585 0.0628301 -0.0187754 
-0.0412873 -0.0243123 0.102967 -0.0156765 -0.0556457 
0.0180713 0.129573 0.0801337 0.0895242 -0.0627768 
0.0743202 0.0815694 -0.010357 -0.00807762 -0.00592455 
-0.0317313 0.0345992 -0.0361119 0.0677827 -0.0332842 
0.136141 -0.0663208 0.0172134 -0.0230713 0.0643471 
-0.0501152 -0.0171738 -0.0271881 -0.0640307 -0.0902684 
0.0420009 -0.094856 -0.0880802 -0.0280094 -0.0211307 
-0.0819322 -0.0973657 0.0681097 -0.0394845 0.0338234 
-0.0278482 -0.00654792 0.0701331 -0.0565259 -0.0523765 
-0.0349913 0.0299372 -0.0394574 -0.00906983 -0.0119404 
-0.0642111 -0.0235271 -0.0719368 0.0822348 -0.0567558 
-0.0054999 -0.0572375 0.108318 -0.117013 -0.0449577 
-0.0159364 0.00629041 -0.0552785 0.148746 -0.163331 
0.220705 -0.0739859 -0.0520568 0.00449239 0.182921 
-0.0406089 0.0661317 -0.0793137 -0.0842067 0.0459783 
0.0207161 0.0817704 -0.0857852 0.0413759 -0.0649879 
0.00276723 0.0577594 -0.0662381 0.0225543 -0.0782731 
-0.178426 -0.113276 0.00190544 0.102069 0.0578922 
-0.0873085 -0.0285485 -0.0287461 0.0492939 0.0538173 
0.0164252 -0.0947028 0.00585164 0.0765932 -0.0320845 
0.0653703 -0.0399124 -0.0926432 0.00184487 -0.0171567 
0.0284239 -0.0860769 0.0328003 0.0699181 -0.016146 
0.0321192 0.00531269 0.0176259 -0.0693606 0.143572 
0.139502 -0.0131266 -0.0362312 0.0747127 -0.0541111 
0.0516109 -0.0203252 -0.00634567 0.0707625 0.0677424 
0.0973404 -0.0409698 0.171498 0.25662 -0.0101691 
-0.0474025 -0.0776385 -0.0197568 -0.0312251 0.0534227 
0.11709 0.0556564 0.0412214 -0.102168 -0.00192926 
0.0298709 -0.0286771 0.00811489 0.0141934 0.00862725 
0.0840391 0.0614254 -0.0414062 0.0571434 -0.0133999 
0.081732 -0.0148354 -0.0840129 0.0862318 0.00999397 
-0.0235992 0.131254 0.00502353 -0.0290916 -0.192405 
-0.0205066 0.118443 0.0229615 -0.0393732 0.167405 
0.0587626 -0.0711657 -0.0572183 0.0283343 0.143216 
-0.0670969 -0.0401705 0.104992 0.0813452 0.0302689 
-0.0257268 -0.0112411 0.163661 0.0383501 -0.111766 
0.0133274 -0.065075 -0.0448917 0.0927037 -0.166189 
-0.0361466 -0.0273337 0.0286639 0.0241238 0.0818665 
-0.0513077 0.0656807 -0.106633 -0.0222783 -0.000168846 
-0.113615 0.0569178 -0.0916964 -0.00273389 -0.0109495 
-0.0087845 0.0261812 -0.0500321 -0.0716508 -0.0423107 
0.041961 -0.0317228 -0.181758 -0.104261 0.0164412 
0.0594221 -0.072399 0.0155759 0.110433 -0.0401917 
0.0934693 0.0788407 0.0281208 0.086274 0.132177 
-0.00528012 -0.0421965 0.0443383 0.160679 0.0203263 
-0.0083432 -0.0902602 -0.00905525 -0.0640558 -0.0856885 
0.086618 -0.0183827 0.0447778 0.0576653 0.0467348 
-0.036767 -0.0282699 -0.0689054 0.0355389 0.0385359 
-0.0276358 -0.136971 0.096912 0.0250425 -0.0224651 
-0.00613389 -0.0102886 -0.178875 0.0993733 -0.0451283 
0.0332573 0.0309698 -0.00641851 -0.0290431 -0.0218868 
0.0174169 0.113055 0.05259 0.012319 0.0291084 
-0.00830642 0.0325465 -0.0484558 -0.0246313 0.0343918 
-0.0245819 0.100624 0.031666 0.0610236 0.00818188 
0.0314323 -0.0626755 0.0340642 0.0181449 0.00625215 
0.107879 -0.00518219 0.0852251 0.0291879 0.0569832 
0.0176986 -0.0600628 -0.0709241 0.0933681 -0.178108 
-0.0752124 0.0223412 0.0972521 -0.0640469 0.031702 
0.00704131 -0.0271981 -0.0597663 0.00367692 0.058606 
0.0623934 -0.0528605 -0.0428514 -0.156647 -0.131045 
0.0465352 -0.0675982 -0.0360627 -0.0671995 -0.0296472 
-0.0363236 -0.0584533 -0.0340722 -0.0315818 -0.00581134 
0.107861 -0.0195366 -0.0340062 -0.0190392 -0.0530459 
0.0688216 0.114789 0.0378989 0.00700773 0.20577 
0.0451986 -0.0763218 -0.0413827 0.078422 0.169712 
0.110493 0.010228 -0.0242581 0.137166 -0.107174 
-0.046894 0.0403431 -0.19316 -0.0489271 0.0141291 
0.0259675 -0.0362274 0.14403 0.068208 -0.0665709 
0.0153155 0.0153806 0.107541 -0.050206 0.0421888 
0.0607527 -0.00713785 0.090711 -0.104989 -0.0819635 
-0.0460065 0.121984 -0.0294107 0.0178705 -0.0748811 
-0.0270315 -0.069372 -0.0186177 -0.00197824 -0.0213747 
-0.000331413 -0.0610793 0.0642085 -0.000992631 0.0676861 
0.0447677 0.06749 0.0348873 -0.0559615 -0.020066 
0.0572165 -0.0531703 0.0434507 -0.0265351 -0.045577 
0.00252983 -0.0529231 -0.0398561 -0.0498996 0.0697956 
-0.0273825 -0.0226905 0.0984745 -0.0226688 0.0439751 
-0.0241361 -0.0555214 -0.035636 0.0512027 -0.037739 
-0.0706364 -0.000728228 0.0743976 -0.158583 -0.00423857 
-0.00907855 0.0460298 0.00444065 -0.127045 -0.0501691 
-0.038872 -0.0602253 0.0942159 -0.124044 -0.0447512 
0.100008 -0.0140773 -0.0610122 0.114244 0.0708547 
0.0365621 0.0689219 0.133931 0.0634247 -0.0298456 
0.00414171 -0.131057 -0.0178327 0.0566738 0.0140049 
-0.00753673 -0.0809511 0.0188245 0.0420224 0.0625016 
0.00775506 -0.0896577 0.097419 0.073666 -0.081653 
0.124001 -0.0674592 0.0854552 -0.0313788 0.100907 
0.061756 -0.00771692 0.025043 0.115744 -0.10763 
0.136906 0.01522 0.0838423 -0.00445043 -0.046661 
-0.0473942 -0.0373265 0.0680409 0.0579633 0.107429 
0.0183699 -0.161541 0.0302316 0.0212807 -0.108855 
0.0219307 0.0717371 -0.0419583 0.163509 -0.029164 
0.0401969 0.0708944 0.0607022 -0.0128789 -0.0114828 
0.110494 -0.0277156 0.031211 -0.030764 0.0329991 
-0.0293267 0.0628834 -0.0396131 0.0012033 0.0118001 
0.0427853 -0.114518 0.0666913 0.0932175 -0.0180854 
-0.0791981 -0.0216501 -0.0111187 0.0489027 -0.0618389 
-0.0613439 0.0312657 0.0715685 -0.0536373 -0.044678 
-0.0236985 -0.00133794 -0.0203821 0.030365 0.0518456 
-0.128354 -0.0476046 0.0426198 0.0753197 0.0992768 
0.116038 0.0831279 0.0447424 0.142283 0.112477 
0.0363744 0.0366271 0.0543129 0.000313451 -0.0432591 
0.153463 0.018578 -0.0116073 -0.109569 0.0299246 
-0.153566 -0.0532281 0.0340925 -0.0135775 0.0129568 
-0.0402409 -0.00565913 0.161891 -0.182616 0.038826 
0.102841 0.0204239 0.0768047 0.0200178 0.0264664 
0.0796962 0.0624677 0.129041 0.056958 0.0274598 
0.0720528 0.029754 -0.047198 0.0724157 0.123649 
-0.0796897 -0.0710082 0.0725486 0.146064 0.0940137 
0.0447604 0.00221138 0.063689 0.158583 -0.109028 
0.14391 0.104345 0.110384 -0.0278792 -0.0456743 
0.0102633 -0.0824619 0.018628 0.0309412 0.143872 
-0.0158426 -0.136496 -0.0117591 -0.0622553 0.0928183 
-0.0623267 0.00834378 -0.039803 -0.0609148 -0.0200335 
0.147276 -0.00888491 -0.0163939 -0.103905 -0.0181643 
-0.0654072 -0.00762579 -0.0756698 -0.0663121 -0.0989915 
-0.060728 -0.0860369 0.000190832 -0.0557579 0.0283254 
0.0197248 0.00637587 0.0325653 0.0154857 -0.0148624 
0.0621831 -0.00687943 0.0639017 -0.132125 -0.0311438 
0.00493203 -0.0448877 0.0938441 0.0287833 0.0642518 
0.0639315 -0.0243072 0.0888608 0.0970551 -0.000151427 
-0.0150094 0.0197343 0.0569617 0.0241199 0.0188244 
0.0276645 -0.0089772 0.134622 -0.0712289 0.0161924 
-0.00327517 0.00922142 0.0323807 0.140623 -0.116704 
-0.022154 0.037 -0.137424 0.0204993 -0.0318582 
0.0178308 -0.0733766 -0.0810166 -0.121294 -0.061318 
-0.123502 -0.00994491 0.0997393 -0.0173744 -0.0099673 
-0.0188276 0.159677 0.127039 0.0167967 -0.0388934 
0.0401794 0.11952 0.110056 0.127235 0.0794848 0.0844483 0.106697 0.0978145 0.0469099 0.125935 0.0961113 0.149095 0.140434 0.183161 0.0627351 0.1377 0.143395 0.146162 0.113325 0.161274 0.154103 0.0254023 0.166356 0.0942788 0.20184 0.163263 0.198479 0.151978 0.129163 0.0859887 0.104148 0.0838908 